digraph Tree {
node [shape=box] ;
0 [label="X[0] <= 7467999.75\nmse = 17767481540326.92\nsamples = 15\nvalue = 2755924.699"] ;
1 [label="X[0] <= 2306617.375\nmse = 2911943719900.845\nsamples = 12\nvalue = 794183.458"] ;
0 -> 1 [labeldistance=2.5, labelangle=45, headlabel="True"] ;
2 [label="X[0] <= -355154.587\nmse = 82263554641.792\nsamples = 10\nvalue = 50985.151"] ;
1 -> 2 ;
3 [label="mse = 0.0\nsamples = 1\nvalue = -630254.96"] ;
2 -> 3 ;
4 [label="X[0] <= 283485.562\nmse = 34109123864.047\nsamples = 9\nvalue = 126678.496"] ;
2 -> 4 ;
5 [label="X[0] <= 119562.352\nmse = 3231132541.609\nsamples = 7\nvalue = 31956.151"] ;
4 -> 5 ;
6 [label="X[0] <= 49852.602\nmse = 553378590.813\nsamples = 6\nvalue = 10520.946"] ;
5 -> 6 ;
7 [label="X[0] <= 1.673\nmse = 0.897\nsamples = 5\nvalue = 0.693"] ;
6 -> 7 ;
8 [label="X[0] <= 0.495\nmse = 0.157\nsamples = 4\nvalue = 0.254"] ;
7 -> 8 ;
9 [label="X[0] <= 0.024\nmse = 0.0\nsamples = 3\nvalue = 0.026"] ;
8 -> 9 ;
10 [label="mse = 0.0\nsamples = 1\nvalue = 0.014"] ;
9 -> 10 ;
11 [label="X[0] <= 0.043\nmse = 0.0\nsamples = 2\nvalue = 0.031"] ;
9 -> 11 ;
12 [label="mse = 0.0\nsamples = 1\nvalue = 0.031"] ;
11 -> 12 ;
13 [label="mse = -0.0\nsamples = 1\nvalue = 0.032"] ;
11 -> 13 ;
14 [label="mse = 0.0\nsamples = 1\nvalue = 0.941"] ;
8 -> 14 ;
15 [label="mse = 0.0\nsamples = 1\nvalue = 2.45"] ;
7 -> 15 ;
16 [label="mse = 0.0\nsamples = 1\nvalue = 63122.21"] ;
6 -> 16 ;
17 [label="mse = 0.0\nsamples = 1\nvalue = 160567.38"] ;
5 -> 17 ;
18 [label="X[0] <= 595061.734\nmse = 868010917.101\nsamples = 2\nvalue = 458206.705"] ;
4 -> 18 ;
19 [label="mse = 0.0\nsamples = 1\nvalue = 428744.68"] ;
18 -> 19 ;
20 [label="mse = 0.0\nsamples = 1\nvalue = 487668.73"] ;
18 -> 20 ;
21 [label="X[0] <= 3934338.5\nmse = 490032823549.668\nsamples = 2\nvalue = 4510174.995"] ;
1 -> 21 ;
22 [label="mse = 0.0\nsamples = 1\nvalue = 5210198.44"] ;
21 -> 22 ;
23 [label="mse = -0.002\nsamples = 1\nvalue = 3810151.55"] ;
21 -> 23 ;
24 [label="X[0] <= 10943870.0\nmse = 221058885790.969\nsamples = 3\nvalue = 10602889.663"] ;
0 -> 24 [labeldistance=2.5, labelangle=-45, headlabel="False"] ;
25 [label="mse = 0.0\nsamples = 1\nvalue = 10009503.91"] ;
24 -> 25 ;
26 [label="X[0] <= 11299024.5\nmse = 67508339492.297\nsamples = 2\nvalue = 10899582.54"] ;
24 -> 26 ;
27 [label="mse = 0.0\nsamples = 1\nvalue = 11159406.21"] ;
26 -> 27 ;
28 [label="mse = 0.047\nsamples = 1\nvalue = 10639758.87"] ;
26 -> 28 ;
}