digraph Tree {
node [shape=box] ;
0 [label="X[0] <= 7737300.5\nmse = 17639825031143.227\nsamples = 15\nvalue = 2699604.801"] ;
1 [label="X[0] <= 2390295.375\nmse = 2475169189736.178\nsamples = 12\nvalue = 723783.586"] ;
0 -> 1 [labeldistance=2.5, labelangle=45, headlabel="True"] ;
2 [label="X[0] <= -355154.587\nmse = 71168949781.111\nsamples = 10\nvalue = 32012.358"] ;
1 -> 2 ;
3 [label="mse = 0.0\nsamples = 1\nvalue = -630254.96"] ;
2 -> 3 ;
4 [label="X[0] <= 263728.688\nmse = 24928709555.13\nsamples = 9\nvalue = 105597.616"] ;
2 -> 4 ;
5 [label="X[0] <= 119562.352\nmse = 3231132507.797\nsamples = 7\nvalue = 31956.152"] ;
4 -> 5 ;
6 [label="X[0] <= 49852.602\nmse = 553378577.825\nsamples = 6\nvalue = 10520.947"] ;
5 -> 6 ;
7 [label="X[0] <= 1.673\nmse = 0.896\nsamples = 5\nvalue = 0.694"] ;
6 -> 7 ;
8 [label="X[0] <= 0.488\nmse = 0.157\nsamples = 4\nvalue = 0.255"] ;
7 -> 8 ;
9 [label="X[0] <= 0.022\nmse = 0.0\nsamples = 3\nvalue = 0.027"] ;
8 -> 9 ;
10 [label="mse = 0.0\nsamples = 1\nvalue = 0.014"] ;
9 -> 10 ;
11 [label="X[0] <= 0.033\nmse = 0.0\nsamples = 2\nvalue = 0.033"] ;
9 -> 11 ;
12 [label="mse = 0.0\nsamples = 1\nvalue = 0.035"] ;
11 -> 12 ;
13 [label="mse = 0.0\nsamples = 1\nvalue = 0.031"] ;
11 -> 13 ;
14 [label="mse = 0.0\nsamples = 1\nvalue = 0.941"] ;
8 -> 14 ;
15 [label="mse = 0.0\nsamples = 1\nvalue = 2.45"] ;
7 -> 15 ;
16 [label="mse = 0.0\nsamples = 1\nvalue = 63122.21"] ;
6 -> 16 ;
17 [label="mse = 0.0\nsamples = 1\nvalue = 160567.38"] ;
5 -> 17 ;
18 [label="X[0] <= 575304.859\nmse = 15456951789.48\nsamples = 2\nvalue = 363342.74"] ;
4 -> 18 ;
19 [label="mse = 0.0\nsamples = 1\nvalue = 239016.75"] ;
18 -> 19 ;
20 [label="mse = -0.0\nsamples = 1\nvalue = 487668.73"] ;
18 -> 20 ;
21 [label="X[0] <= 4287317.25\nmse = 138747440514.834\nsamples = 2\nvalue = 4182639.725"] ;
1 -> 21 ;
22 [label="mse = 0.0\nsamples = 1\nvalue = 3810151.55"] ;
21 -> 22 ;
23 [label="mse = 0.0\nsamples = 1\nvalue = 4555127.9"] ;
21 -> 23 ;
24 [label="X[0] <= 10943870.0\nmse = 221058885790.969\nsamples = 3\nvalue = 10602889.663"] ;
0 -> 24 [labeldistance=2.5, labelangle=-45, headlabel="False"] ;
25 [label="mse = 0.0\nsamples = 1\nvalue = 10009503.91"] ;
24 -> 25 ;
26 [label="X[0] <= 11299024.5\nmse = 67508339492.297\nsamples = 2\nvalue = 10899582.54"] ;
24 -> 26 ;
27 [label="mse = 0.0\nsamples = 1\nvalue = 11159406.21"] ;
26 -> 27 ;
28 [label="mse = 0.047\nsamples = 1\nvalue = 10639758.87"] ;
26 -> 28 ;
}