digraph Tree {
node [shape=box, fontname="helvetica"] ;
edge [fontname="helvetica"] ;
0 [label="X[0] <= 7737300.5\nsquared_error = 17473846541627.62\nsamples = 15\nvalue = 3043023.032"] ;
1 [label="X[0] <= 2139104.859\nsquared_error = 3927173616699.988\nsamples = 12\nvalue = 1153056.374"] ;
0 -> 1 [labeldistance=2.5, labelangle=45, headlabel="True"] ;
2 [label="X[0] <= -355154.578\nsquared_error = 73373121755.962\nsamples = 9\nvalue = 29022.067"] ;
1 -> 2 ;
3 [label="squared_error = 0.0\nsamples = 1\nvalue = -630254.96"] ;
2 -> 3 ;
4 [label="X[0] <= 263728.688\nsquared_error = 21422640415.315\nsamples = 8\nvalue = 111431.695"] ;
2 -> 4 ;
5 [label="X[0] <= 119562.352\nsquared_error = 3571100358.317\nsamples = 6\nvalue = 37282.022"] ;
4 -> 5 ;
6 [label="X[0] <= 49852.602\nsquared_error = 637493322.217\nsamples = 5\nvalue = 12624.95"] ;
5 -> 6 ;
7 [label="X[0] <= 1.229\nsquared_error = 1.098\nsamples = 4\nvalue = 0.635"] ;
6 -> 7 ;
8 [label="X[0] <= 0.032\nsquared_error = 0.0\nsamples = 3\nvalue = 0.03"] ;
7 -> 8 ;
9 [label="squared_error = 0.0\nsamples = 1\nvalue = 0.035"] ;
8 -> 9 ;
10 [label="X[0] <= 0.042\nsquared_error = 0.0\nsamples = 2\nvalue = 0.027"] ;
8 -> 10 ;
11 [label="squared_error = 0.0\nsamples = 1\nvalue = 0.022"] ;
10 -> 11 ;
12 [label="squared_error = 0.0\nsamples = 1\nvalue = 0.032"] ;
10 -> 12 ;
13 [label="squared_error = 0.0\nsamples = 1\nvalue = 2.45"] ;
7 -> 13 ;
14 [label="squared_error = 0.0\nsamples = 1\nvalue = 63122.21"] ;
6 -> 14 ;
15 [label="squared_error = 0.0\nsamples = 1\nvalue = 160567.38"] ;
5 -> 15 ;
16 [label="X[0] <= 407792.344\nsquared_error = 8999171855.521\nsamples = 2\nvalue = 333880.715"] ;
4 -> 16 ;
17 [label="squared_error = 0.0\nsamples = 1\nvalue = 239016.75"] ;
16 -> 17 ;
18 [label="squared_error = 0.0\nsamples = 1\nvalue = 428744.68"] ;
16 -> 18 ;
19 [label="X[0] <= 3934338.5\nsquared_error = 327137607625.988\nsamples = 3\nvalue = 4525159.297"] ;
1 -> 19 ;
20 [label="squared_error = 0.0\nsamples = 1\nvalue = 5210198.44"] ;
19 -> 20 ;
21 [label="X[0] <= 4287317.25\nsquared_error = 138747440514.83\nsamples = 2\nvalue = 4182639.725"] ;
19 -> 21 ;
22 [label="squared_error = 0.0\nsamples = 1\nvalue = 3810151.55"] ;
21 -> 22 ;
23 [label="squared_error = 0.0\nsamples = 1\nvalue = 4555127.9"] ;
21 -> 23 ;
24 [label="X[0] <= 10943870.0\nsquared_error = 221058885791.031\nsamples = 3\nvalue = 10602889.663"] ;
0 -> 24 [labeldistance=2.5, labelangle=-45, headlabel="False"] ;
25 [label="squared_error = 0.0\nsamples = 1\nvalue = 10009503.91"] ;
24 -> 25 ;
26 [label="X[0] <= 11299024.5\nsquared_error = 67508339492.297\nsamples = 2\nvalue = 10899582.54"] ;
24 -> 26 ;
27 [label="squared_error = 0.0\nsamples = 1\nvalue = 11159406.21"] ;
26 -> 27 ;
28 [label="squared_error = 0.047\nsamples = 1\nvalue = 10639758.87"] ;
26 -> 28 ;
}