digraph Tree {
node [shape=box] ;
0 [label="X[0] <= 2306617.375\nmse = 18138196702668.023\nsamples = 15\nvalue = 3349283.401"] ;
1 [label="X[0] <= 263728.688\nmse = 34680548740.633\nsamples = 9\nvalue = 146222.335"] ;
0 -> 1 [labeldistance=2.5, labelangle=45, headlabel="True"] ;
2 [label="X[0] <= 69712.157\nmse = 3580786120.913\nsamples = 6\nvalue = 26761.81"] ;
1 -> 2 ;
3 [label="X[0] <= 1.673\nmse = 0.894\nsamples = 5\nvalue = 0.696"] ;
2 -> 3 ;
4 [label="X[0] <= 0.488\nmse = 0.156\nsamples = 4\nvalue = 0.257"] ;
3 -> 4 ;
5 [label="X[0] <= 0.032\nmse = 0.0\nsamples = 3\nvalue = 0.03"] ;
4 -> 5 ;
6 [label="mse = 0.0\nsamples = 1\nvalue = 0.035"] ;
5 -> 6 ;
7 [label="X[0] <= 0.035\nmse = 0.0\nsamples = 2\nvalue = 0.027"] ;
5 -> 7 ;
8 [label="mse = 0.0\nsamples = 1\nvalue = 0.022"] ;
7 -> 8 ;
9 [label="mse = 0.0\nsamples = 1\nvalue = 0.031"] ;
7 -> 9 ;
10 [label="mse = 0.0\nsamples = 1\nvalue = 0.941"] ;
4 -> 10 ;
11 [label="mse = 0.0\nsamples = 1\nvalue = 2.45"] ;
3 -> 11 ;
12 [label="mse = 0.0\nsamples = 1\nvalue = 160567.38"] ;
2 -> 12 ;
13 [label="X[0] <= 407792.344\nmse = 11255170916.49\nsamples = 3\nvalue = 385143.387"] ;
1 -> 13 ;
14 [label="mse = 0.0\nsamples = 1\nvalue = 239016.75"] ;
13 -> 14 ;
15 [label="X[0] <= 595061.734\nmse = 868010917.101\nsamples = 2\nvalue = 458206.705"] ;
13 -> 15 ;
16 [label="mse = 0.0\nsamples = 1\nvalue = 428744.68"] ;
15 -> 16 ;
17 [label="mse = 0.0\nsamples = 1\nvalue = 487668.73"] ;
15 -> 17 ;
18 [label="X[0] <= 8934862.0\nmse = 6819970232038.617\nsamples = 6\nvalue = 8153874.998"] ;
0 -> 18 [labeldistance=2.5, labelangle=-45, headlabel="False"] ;
19 [label="X[0] <= 5754179.5\nmse = 1423535919516.078\nsamples = 3\nvalue = 5704860.333"] ;
18 -> 19 ;
20 [label="X[0] <= 4203639.25\nmse = 107279353093.977\nsamples = 2\nvalue = 4882663.17"] ;
19 -> 20 ;
21 [label="mse = 0.0\nsamples = 1\nvalue = 5210198.44"] ;
20 -> 21 ;
22 [label="mse = 0.008\nsamples = 1\nvalue = 4555127.9"] ;
20 -> 22 ;
23 [label="mse = -0.008\nsamples = 1\nvalue = 7349254.66"] ;
19 -> 23 ;
24 [label="X[0] <= 10943870.0\nmse = 221058885791.0\nsamples = 3\nvalue = 10602889.663"] ;
18 -> 24 ;
25 [label="mse = 0.0\nsamples = 1\nvalue = 10009503.91"] ;
24 -> 25 ;
26 [label="X[0] <= 11299024.5\nmse = 67508339492.297\nsamples = 2\nvalue = 10899582.54"] ;
24 -> 26 ;
27 [label="mse = 0.0\nsamples = 1\nvalue = 11159406.21"] ;
26 -> 27 ;
28 [label="mse = 0.047\nsamples = 1\nvalue = 10639758.87"] ;
26 -> 28 ;
}