digraph Tree {
node [shape=box, fontname="helvetica"] ;
edge [fontname="helvetica"] ;
0 [label="X[0] <= 5754179.5\nsquared_error = 17821504111718.234\nsamples = 15\nvalue = 3538845.65"] ;
1 [label="X[0] <= 2306617.375\nsquared_error = 4146207462184.528\nsamples = 11\nvalue = 1265887.372"] ;
0 -> 1 [labeldistance=2.5, labelangle=45, headlabel="True"] ;
2 [label="X[0] <= -355154.578\nsquared_error = 100949834247.055\nsamples = 8\nvalue = 43660.401"] ;
1 -> 2 ;
3 [label="squared_error = 0.0\nsamples = 1\nvalue = -630254.96"] ;
2 -> 3 ;
4 [label="X[0] <= 263626.008\nsquared_error = 41222355269.703\nsamples = 7\nvalue = 139934.024"] ;
2 -> 4 ;
5 [label="X[0] <= 49852.602\nsquared_error = 637493280.032\nsamples = 5\nvalue = 12624.951"] ;
4 -> 5 ;
6 [label="X[0] <= 1.229\nsquared_error = 1.096\nsamples = 4\nvalue = 0.637"] ;
5 -> 6 ;
7 [label="X[0] <= 0.033\nsquared_error = 0.0\nsamples = 3\nvalue = 0.033"] ;
6 -> 7 ;
8 [label="squared_error = 0.0\nsamples = 1\nvalue = 0.035"] ;
7 -> 8 ;
9 [label="X[0] <= 0.043\nsquared_error = 0.0\nsamples = 2\nvalue = 0.031"] ;
7 -> 9 ;
10 [label="squared_error = 0.0\nsamples = 1\nvalue = 0.031"] ;
9 -> 10 ;
11 [label="squared_error = -0.0\nsamples = 1\nvalue = 0.032"] ;
9 -> 11 ;
12 [label="squared_error = 0.0\nsamples = 1\nvalue = 2.45"] ;
6 -> 12 ;
13 [label="squared_error = 0.0\nsamples = 1\nvalue = 63122.21"] ;
5 -> 13 ;
14 [label="X[0] <= 595061.734\nsquared_error = 868010917.101\nsamples = 2\nvalue = 458206.705"] ;
4 -> 14 ;
15 [label="squared_error = 0.0\nsamples = 1\nvalue = 428744.68"] ;
14 -> 15 ;
16 [label="squared_error = 0.0\nsamples = 1\nvalue = 487668.73"] ;
14 -> 16 ;
17 [label="X[0] <= 3934338.5\nsquared_error = 327137607625.988\nsamples = 3\nvalue = 4525159.297"] ;
1 -> 17 ;
18 [label="squared_error = 0.0\nsamples = 1\nvalue = 5210198.44"] ;
17 -> 18 ;
19 [label="X[0] <= 4287317.25\nsquared_error = 138747440514.83\nsamples = 2\nvalue = 4182639.725"] ;
17 -> 19 ;
20 [label="squared_error = 0.0\nsamples = 1\nvalue = 3810151.55"] ;
19 -> 20 ;
21 [label="squared_error = 0.0\nsamples = 1\nvalue = 4555127.9"] ;
19 -> 21 ;
22 [label="X[0] <= 8934862.0\nsquared_error = 2150695552140.031\nsamples = 4\nvalue = 9789480.913"] ;
0 -> 22 [labeldistance=2.5, labelangle=-45, headlabel="False"] ;
23 [label="squared_error = 0.0\nsamples = 1\nvalue = 7349254.66"] ;
22 -> 23 ;
24 [label="X[0] <= 10943870.0\nsquared_error = 221058885790.922\nsamples = 3\nvalue = 10602889.663"] ;
22 -> 24 ;
25 [label="squared_error = 0.0\nsamples = 1\nvalue = 10009503.91"] ;
24 -> 25 ;
26 [label="X[0] <= 11299024.5\nsquared_error = 67508339492.297\nsamples = 2\nvalue = 10899582.54"] ;
24 -> 26 ;
27 [label="squared_error = 0.0\nsamples = 1\nvalue = 11159406.21"] ;
26 -> 27 ;
28 [label="squared_error = 0.047\nsamples = 1\nvalue = 10639758.87"] ;
26 -> 28 ;
}