digraph Tree {
node [shape=box] ;
0 [label="X[0] <= 2139104.859\nmse = 15464606127140.924\nsamples = 15\nvalue = 2604014.949"] ;
1 [label="X[0] <= 119562.352\nmse = 19124819002.017\nsamples = 10\nvalue = 89145.451"] ;
0 -> 1 [labeldistance=2.5, labelangle=45, headlabel="True"] ;
2 [label="X[0] <= 49852.602\nmse = 487878363.985\nsamples = 7\nvalue = 9017.957"] ;
1 -> 2 ;
3 [label="X[0] <= 1.673\nmse = 0.81\nsamples = 6\nvalue = 0.582"] ;
2 -> 3 ;
4 [label="X[0] <= 0.495\nmse = 0.134\nsamples = 5\nvalue = 0.208"] ;
3 -> 4 ;
5 [label="X[0] <= 0.035\nmse = 0.0\nsamples = 4\nvalue = 0.025"] ;
4 -> 5 ;
6 [label="X[0] <= 0.023\nmse = 0.0\nsamples = 2\nvalue = 0.018"] ;
5 -> 6 ;
7 [label="mse = 0.0\nsamples = 1\nvalue = 0.014"] ;
6 -> 7 ;
8 [label="mse = 0.0\nsamples = 1\nvalue = 0.022"] ;
6 -> 8 ;
9 [label="X[0] <= 0.043\nmse = 0.0\nsamples = 2\nvalue = 0.031"] ;
5 -> 9 ;
10 [label="mse = 0.0\nsamples = 1\nvalue = 0.031"] ;
9 -> 10 ;
11 [label="mse = -0.0\nsamples = 1\nvalue = 0.032"] ;
9 -> 11 ;
12 [label="mse = 0.0\nsamples = 1\nvalue = 0.941"] ;
4 -> 12 ;
13 [label="mse = 0.0\nsamples = 1\nvalue = 2.45"] ;
3 -> 13 ;
14 [label="mse = 0.0\nsamples = 1\nvalue = 63122.21"] ;
2 -> 14 ;
15 [label="X[0] <= 407792.344\nmse = 12674450590.086\nsamples = 3\nvalue = 276109.603"] ;
1 -> 15 ;
16 [label="X[0] <= 263728.688\nmse = 1538575913.349\nsamples = 2\nvalue = 199792.065"] ;
15 -> 16 ;
17 [label="mse = 0.0\nsamples = 1\nvalue = 160567.38"] ;
16 -> 17 ;
18 [label="mse = -0.0\nsamples = 1\nvalue = 239016.75"] ;
16 -> 18 ;
19 [label="mse = 0.0\nsamples = 1\nvalue = 428744.68"] ;
15 -> 19 ;
20 [label="X[0] <= 8960749.0\nmse = 8408157181371.0\nsamples = 5\nvalue = 7633753.946"] ;
0 -> 20 [labeldistance=2.5, labelangle=-45, headlabel="False"] ;
21 [label="X[0] <= 5484878.75\nmse = 2117882625525.692\nsamples = 3\nvalue = 5456534.883"] ;
20 -> 21 ;
22 [label="X[0] <= 3934338.5\nmse = 490032823549.668\nsamples = 2\nvalue = 4510174.995"] ;
21 -> 22 ;
23 [label="mse = 0.0\nsamples = 1\nvalue = 5210198.44"] ;
22 -> 23 ;
24 [label="mse = -0.002\nsamples = 1\nvalue = 3810151.55"] ;
22 -> 24 ;
25 [label="mse = 0.008\nsamples = 1\nvalue = 7349254.66"] ;
21 -> 25 ;
26 [label="X[0] <= 11299024.5\nmse = 67508339492.297\nsamples = 2\nvalue = 10899582.54"] ;
20 -> 26 ;
27 [label="mse = 0.0\nsamples = 1\nvalue = 11159406.21"] ;
26 -> 27 ;
28 [label="mse = 0.047\nsamples = 1\nvalue = 10639758.87"] ;
26 -> 28 ;
}