digraph Tree {
node [shape=box] ;
0 [label="X[0] <= 2119347.984\nmse = 10266165930850.516\nsamples = 15\nvalue = 2051112.756"] ;
1 [label="X[0] <= -355154.587\nmse = 48130948136.737\nsamples = 10\nvalue = -16754.513"] ;
0 -> 1 [labeldistance=2.5, labelangle=45, headlabel="True"] ;
2 [label="mse = 0.0\nsamples = 1\nvalue = -630254.96"] ;
1 -> 2 ;
3 [label="X[0] <= 119562.352\nmse = 7011819052.716\nsamples = 9\nvalue = 51412.204"] ;
1 -> 3 ;
4 [label="X[0] <= 49852.602\nmse = 487878354.443\nsamples = 7\nvalue = 9017.958"] ;
3 -> 4 ;
5 [label="X[0] <= 1.673\nmse = 0.809\nsamples = 6\nvalue = 0.582"] ;
4 -> 5 ;
6 [label="X[0] <= 0.488\nmse = 0.134\nsamples = 5\nvalue = 0.209"] ;
5 -> 6 ;
7 [label="X[0] <= 0.022\nmse = 0.0\nsamples = 4\nvalue = 0.026"] ;
6 -> 7 ;
8 [label="mse = 0.0\nsamples = 1\nvalue = 0.014"] ;
7 -> 8 ;
9 [label="X[0] <= 0.032\nmse = 0.0\nsamples = 3\nvalue = 0.03"] ;
7 -> 9 ;
10 [label="mse = 0.0\nsamples = 1\nvalue = 0.035"] ;
9 -> 10 ;
11 [label="X[0] <= 0.035\nmse = 0.0\nsamples = 2\nvalue = 0.027"] ;
9 -> 11 ;
12 [label="mse = 0.0\nsamples = 1\nvalue = 0.022"] ;
11 -> 12 ;
13 [label="mse = 0.0\nsamples = 1\nvalue = 0.031"] ;
11 -> 13 ;
14 [label="mse = 0.0\nsamples = 1\nvalue = 0.941"] ;
6 -> 14 ;
15 [label="mse = 0.0\nsamples = 1\nvalue = 2.45"] ;
5 -> 15 ;
16 [label="mse = 0.0\nsamples = 1\nvalue = 63122.21"] ;
4 -> 16 ;
17 [label="X[0] <= 263728.688\nmse = 1538575913.349\nsamples = 2\nvalue = 199792.065"] ;
3 -> 17 ;
18 [label="mse = 0.0\nsamples = 1\nvalue = 160567.38"] ;
17 -> 18 ;
19 [label="mse = -0.0\nsamples = 1\nvalue = 239016.75"] ;
17 -> 19 ;
20 [label="X[0] <= 5754179.5\nmse = 5045785662540.516\nsamples = 5\nvalue = 6186847.292"] ;
0 -> 20 [labeldistance=2.5, labelangle=-45, headlabel="False"] ;
21 [label="X[0] <= 3934338.5\nmse = 327137607625.988\nsamples = 3\nvalue = 4525159.297"] ;
20 -> 21 ;
22 [label="mse = 0.0\nsamples = 1\nvalue = 5210198.44"] ;
21 -> 22 ;
23 [label="X[0] <= 4287317.25\nmse = 138747440514.83\nsamples = 2\nvalue = 4182639.725"] ;
21 -> 23 ;
24 [label="mse = 0.0\nsamples = 1\nvalue = 3810151.55"] ;
23 -> 24 ;
25 [label="mse = 0.0\nsamples = 1\nvalue = 4555127.9"] ;
23 -> 25 ;
26 [label="X[0] <= 8934862.0\nmse = 1769231518031.39\nsamples = 2\nvalue = 8679379.285"] ;
20 -> 26 ;
27 [label="mse = 0.0\nsamples = 1\nvalue = 7349254.66"] ;
26 -> 27 ;
28 [label="mse = -0.016\nsamples = 1\nvalue = 10009503.91"] ;
26 -> 28 ;
}